<?xml version="1.0"?>
<opencv_storage>
<opencv_ml_svm>
  <format>3</format>
  <svmType>C_SVC</svmType>
  <kernel>
    <type>RBF</type>
    <gamma>2.0000000000000001e-01</gamma></kernel>
  <C>5.</C>
  <term_criteria><iterations>100</iterations></term_criteria>
  <var_count>11</var_count>
  <class_count>2</class_count>
  <class_labels type_id="opencv-matrix">
    <rows>2</rows>
    <cols>1</cols>
    <dt>i</dt>
    <data>
      0 1</data></class_labels>
  <sv_total>59</sv_total>
  <support_vectors>
    <_>
      3.10000002e-01 5.40000021e-01 7.09000015e+00 2. 0. 1.32499993e-01
      0. 1.59600005e-01 0. 9. 7.</_>
    <_>
      2.00000003e-01 3.70000005e-01 2.55999994e+00 3. 1.20999999e-01 0.
      1.08499996e-01 2.33300000e-01 0. 7. 6.</_>
    <_>
      2.70000011e-01 2.30000004e-01 1.69000006e+00 2. 1.21900000e-01 0.
      5.31999990e-02 0. 0. 4. 3.</_>
    <_>
      3.19999993e-01 3.79999995e-01 2.57999992e+00 3. 2.35100001e-01 0.
      1.55499995e-01 1.91900000e-01 0. 6. 4.</_>
    <_>
      2.19999999e-01 1.80000007e-01 4.32999992e+00 3. 7.89000019e-02
      6.30000010e-02 7.32999966e-02 0. 0. 12. 10.</_>
    <_>
      2.89999992e-01 1.89999998e-01 4.92999983e+00 2. 0. 0.
      6.57000020e-02 4.78999987e-02 0. 13. 10.</_>
    <_>
      1.89999998e-01 1.29999995e-01 1.28999996e+00 3. 5.90000022e-03
      2.23100007e-01 8.39999970e-03 0. 0. 2. 2.</_>
    <_>
      4.39999998e-01 2.50000000e-01 3.11999989e+00 2. 0. 6.67999983e-02
      0. 4.39099997e-01 0. 7. 6.</_>
    <_>
      4.69999999e-01 5.00000000e-01 5.51999998e+00 3. 0. 1.06299996e-01
      1.61200002e-01 1.61200002e-01 0. 7. 5.</_>
    <_>
      1.40000001e-01 2.00000003e-01 3.29999995e+00 1. 0. 2.67999992e-02
      0. 0. 0. 7. 6.</_>
    <_>
      7.20000029e-01 6.29999995e-01 6.67000008e+00 3. 1.61699995e-01 0.
      1.65399998e-01 1.63599998e-01 0. 15. 13.</_>
    <_>
      2.00000003e-01 1.40000001e-01 2.43000007e+00 2. 0. 0.
      2.75900006e-01 1.72700003e-01 0. 5. 3.</_>
    <_>
      3.19999993e-01 3.99999991e-02 2.13000011e+00 1. 0. 0.
      1.32999998e-02 0. 0. 14. 13.</_>
    <_>
      3.10000002e-01 5.79999983e-01 4.46000004e+00 2. 0. 0.
      1.97999999e-01 5.29000014e-02 0. 9. 8.</_>
    <_>
      1.19999997e-01 1.70000002e-01 1.90999997e+00 2. 8.83999988e-02 0.
      6.78000003e-02 0. 0. 5. 4.</_>
    <_>
      1.50000006e-01 2.50000000e-01 2.00999999e+00 4. 2.39899993e-01
      1.79199994e-01 2.83000004e-02 9.80000012e-03 0. 4. 3.</_>
    <_>
      3.49999994e-01 2.00000003e-01 1.86000001e+00 3. 0. 2.00499997e-01
      1.34800002e-01 1.36600003e-01 0. 10. 7.</_>
    <_>
      4.49999988e-01 4.19999987e-01 3.77999997e+00 2. 1.08800001e-01 0.
      1.39999995e-03 0. 0. 10. 8.</_>
    <_>
      1.80000007e-01 1.19999997e-01 1.94000006e+00 2. 3.18999998e-02 0.
      3.44999991e-02 0. 0. 12. 11.</_>
    <_>
      4.00000006e-01 1.89999998e-01 3.11999989e+00 3. 1.48000002e-01 0.
      1.14299998e-01 5.49000017e-02 0. 5. 5.</_>
    <_>
      4.39999998e-01 2.39999995e-01 3.93000007e+00 3. 1.05599999e-01
      2.30399996e-01 6.25000000e-02 0. 0. 4. 4.</_>
    <_>
      3.89999986e-01 5.50000012e-01 9.14000034e+00 1. 0. 0.
      5.90000022e-03 0. 0. 6. 4.</_>
    <_>
      2.50000000e-01 2.70000011e-01 4.61999989e+00 2. 0. 0.
      7.46000037e-02 1.35700002e-01 0. 15. 12.</_>
    <_>
      2.70000011e-01 6.60000026e-01 4.34000015e+00 2. 0. 0.
      8.28000009e-02 1.17899999e-01 0. 14. 7.</_>
    <_>
      2.19999999e-01 2.19999999e-01 7.44000006e+00 2. 0. 0.
      1.73299998e-01 9.78000015e-02 0. 14. 13.</_>
    <_>
      3.49999994e-01 2.89999992e-01 5.42000008e+00 2. 0. 0.
      1.22199997e-01 1.69599995e-01 0. 4. 4.</_>
    <_>
      4.09999996e-01 2.59999990e-01 2.72000003e+00 1. 0. 0. 0. 0. 0. 4.
      3.</_>
    <_>
      1.29999995e-01 1.29999995e-01 2.42000008e+00 2. 0. 0.
      1.82000007e-02 7.50999972e-02 0. 8. 7.</_>
    <_>
      2.59999990e-01 9.00000036e-02 2.18000007e+00 1. 0. 0. 0. 0. 0. 10.
      8.</_>
    <_>
      2.09999993e-01 1.59999996e-01 6.84000015e+00 1. 0. 0. 0.
      1.08199999e-01 0. 5. 5.</_>
    <_>
      2.89999992e-01 1.50000006e-01 1.63000000e+00 3. 6.80000009e-03 0.
      1.71000008e-02 6.20000018e-03 0. 4. 3.</_>
    <_>
      1.89999998e-01 2.89999992e-01 1.49000001e+00 3. 8.20999965e-02 0.
      0. 2.28400007e-01 0. 4. 3.</_>
    <_>
      2.39999995e-01 1.59999996e-01 1.87000000e+00 2. 0. 0.
      6.75999969e-02 1.14399999e-01 0. 5. 4.</_>
    <_>
      4.09999996e-01 5.50000012e-01 3.04999995e+00 1. 0. 0. 0.
      9.99999978e-03 0. 8. 5.</_>
    <_>
      1.41999996e+00 4.69999999e-01 5.59999990e+00 3. 0. 1.87999997e-02
      4.30999994e-02 4.89000008e-02 0. 8. 4.</_>
    <_>
      2.70000011e-01 1.59999996e-01 3.57999992e+00 2. 0. 0.
      8.10000021e-03 3.19999992e-03 0. 7. 3.</_>
    <_>
      2.80000001e-01 2.19999999e-01 1.99000001e+00 1. 0. 0. 0.
      5.38999997e-02 0. 4. 2.</_>
    <_>
      1.29999995e-01 9.00000036e-02 1.62000000e+00 2. 0. 0.
      1.10399999e-01 4.10999991e-02 0. 4. 4.</_>
    <_>
      2.19999999e-01 1.29999995e-01 1.53999996e+00 1. 0. 0. 0.
      5.20000001e-03 0. 4. 4.</_>
    <_>
      1.80000007e-01 2.30000004e-01 1.88999999e+00 3. 1.25000000e-01 0.
      3.26000005e-02 1.69599995e-01 0. 5. 3.</_>
    <_>
      1.89999998e-01 1.80000007e-01 1.85000002e+00 2. 0. 0.
      6.01000004e-02 3.84999998e-02 0. 5. 3.</_>
    <_>
      1.80000007e-01 1.89999998e-01 2.52999997e+00 2. 0. 0.
      1.09999999e-02 2.60699987e-01 0. 6. 5.</_>
    <_>
      2.30000004e-01 1.29999995e-01 2.46000004e+00 1. 0. 0. 0. 0. 0. 11.
      7.</_>
    <_>
      2.80000001e-01 2.59999990e-01 7.73000002e+00 1. 0. 0. 0. 0. 0. 7.
      6.</_>
    <_>
      4.39999998e-01 2.39999995e-01 1.31800003e+01 2. 0. 0.
      1.14799999e-01 4.01000008e-02 0. 9. 7.</_>
    <_>
      3.19999993e-01 1.70000002e-01 2.41000009e+00 2. 0. 0.
      1.97799996e-01 9.52000022e-02 0. 8. 6.</_>
    <_>
      2.30000004e-01 3.10000002e-01 2.83999991e+00 2. 0. 0.
      1.53999999e-02 6.69999979e-03 0. 6. 5.</_>
    <_>
      6.39999986e-01 6.70000017e-01 5.84999990e+00 2. 0. 0.
      1.56900004e-01 6.41999990e-02 0. 8. 6.</_>
    <_>
      6.89999998e-01 6.89999998e-01 6.73000002e+00 2. 0. 0.
      6.94999993e-02 8.81000012e-02 0. 7. 4.</_>
    <_>
      2.00000003e-01 2.59999990e-01 2.97000003e+00 2. 0. 0.
      8.89999978e-03 3.19999992e-03 0. 3. 3.</_>
    <_>
      4.79999989e-01 4.49999988e-01 3.31999993e+00 1. 0. 0. 0.
      9.70000029e-03 0. 6. 5.</_>
    <_>
      5.60000002e-01 5.00000000e-01 2.84999990e+00 1. 0. 0. 0.
      4.00000019e-03 0. 8. 7.</_>
    <_>
      1.89999998e-01 1.89999998e-01 6.92999983e+00 2. 0. 0.
      5.82000017e-02 2.87999995e-02 0. 9. 7.</_>
    <_>
      1.40000001e-01 2.19999999e-01 1.47000003e+00 3. 0. 4.30999994e-02
      1.22999996e-02 2.01999992e-02 0. 6. 6.</_>
    <_>
      8.50000024e-01 8.00000012e-01 1.48000002e+00 1. 0. 0. 0. 0. 0. 0.
      0.</_>
    <_>
      1.89999998e-01 3.00000012e-01 3.74000001e+00 2. 0. 0.
      3.97999994e-02 1.41000003e-02 0. 5. 4.</_>
    <_>
      1.70000002e-01 2.09999993e-01 2.19000006e+00 3. 1.44800007e-01 0.
      3.26999985e-02 1.95899993e-01 0. 7. 4.</_>
    <_>
      1.29999995e-01 1.29999995e-01 1.46000004e+00 2. 0. 0.
      8.70000012e-03 4.80000023e-03 0. 3. 2.</_>
    <_>
      2.19999999e-01 3.30000013e-01 5.69000006e+00 2. 0. 0.
      3.51999998e-02 2.08999999e-02 0. 7. 6.</_></support_vectors>
  <decision_functions>
    <_>
      <sv_count>59</sv_count>
      <rho>4.7634408722584801e-02</rho>
      <alpha>
        1. 1.3748496890224153e+00 5. 5.1075467691054866e-01
        9.4107185796863324e-01 1.6964404943238245e+00
        6.7959382541671620e-01 1.5825963905136913e+00
        5.2204958046820893e-01 2.0361045967480722e+00
        1.1140281845791105e+00 3.4010068070587751e+00
        3.2077506275176635e+00 2.2950503197821193e+00
        3.7129010943218201e+00 1.0080563720169344e+00
        6.1014927855944179e-01 3.6356525296097297e+00
        5.5535303069950748e-01 1.9379917130061725e-01 5. 5.
        2.4086973665425511e+00 1.4298393585132980e+00
        2.3770346321920428e+00 3.4474535670702910e-01
        5.5666698500740619e-01 9.0709708158655744e-01
        7.6022265583714665e-01 5. 1.8833969458557707e+00
        1.1499770693934455e+00 1.3111828061509885e+00
        2.7045847542067031e-01 -5. -3.9527397795763708e+00 -5. -5.
        -1.9037557526769319e-01 -5.3871313337023230e-01
        -2.8448424519893716e+00 -3.0186066213113554e+00
        -4.9912252745962826e+00 -5. -5. -8.1652588262635839e-01
        -1.3237706111237282e+00 -5. -4.4634008215626579e+00
        -2.2406639723109967e+00 -1.0450965942272377e+00
        -6.6800396826900699e-01 -1.2087240989425188e+00
        -2.3814570822623602e+00 -1.3505780214010061e+00
        -3.7121984360755872e-01 -8.8890279752002010e-01
        -5.9303803249271680e-01 -5.8864269756726351e-01</alpha>
      <index>
        44 45 46 47 48 49 50 51 31 53 54 55 56 57 58 25 26 27 28 29 30
        52 32 33 34 35 36 37 38 39 40 41 42 43 0 1 2 3 4 5 6 7 8 9 11 12
        13 14 15 16 17 18 19 20 21 22 23 24 10</index></_></decision_functions></opencv_ml_svm>
</opencv_storage>
