<?xml version="1.0"?>
<opencv_storage>
<opencv_ml_svm>
  <format>3</format>
  <svmType>C_SVC</svmType>
  <kernel>
    <type>RBF</type>
    <gamma>2.0000000000000001e-01</gamma></kernel>
  <C>5.</C>
  <term_criteria><iterations>100</iterations></term_criteria>
  <var_count>11</var_count>
  <class_count>2</class_count>
  <class_labels type_id="opencv-matrix">
    <rows>2</rows>
    <cols>1</cols>
    <dt>i</dt>
    <data>
      0 1</data></class_labels>
  <sv_total>24</sv_total>
  <support_vectors>
    <_>
      2.09999993e-01 2.19999999e-01 1.74000001e+00 3. 1.19900003e-01
      1.92499995e-01 1.31099999e-01 0. 0. 10. 7.</_>
    <_>
      3.10000002e-01 3.49999994e-01 3.35999990e+00 3. 5.26000001e-02 0.
      3.22000012e-02 1.30300000e-01 0. 6. 6.</_>
    <_>
      3.10000002e-01 5.40000021e-01 7.09000015e+00 2. 0. 1.32499993e-01
      0. 2.12500006e-01 0. 9. 7.</_>
    <_>
      4.00000006e-01 5.19999981e-01 3.57999992e+00 1. 0. 0. 0.
      6.97000027e-02 0. 5. 3.</_>
    <_>
      5.40000021e-01 3.49999994e-01 2.71000004e+00 2. 2.17999995e-01 0.
      1.61200002e-01 0. 0. 9. 7.</_>
    <_>
      7.99999982e-02 7.99999982e-02 1.66999996e+00 2. 0. 0.
      3.05000003e-02 4.61999997e-02 0. 8. 6.</_>
    <_>
      1.70000002e-01 3.00000012e-01 1.83000004e+00 4. 2.20100001e-01
      2.68900007e-01 2.06400007e-01 3.27899992e-01 0. 7. 6.</_>
    <_>
      3.10000002e-01 5.79999983e-01 4.46000004e+00 2. 0. 0.
      1.24399997e-01 9.83000025e-02 0. 9. 8.</_>
    <_>
      1.40000001e-01 2.00000003e-01 3.29999995e+00 1. 0. 2.67999992e-02
      0. 0. 0. 7. 6.</_>
    <_>
      2.30000004e-01 6.49999976e-01 1.99000001e+00 2. 0. 6.54999986e-02
      0. 6.88000023e-02 0. 8. 4.</_>
    <_>
      4.09999996e-01 5.89999974e-01 2.40000010e+00 1. 0. 0. 0.
      1.93900004e-01 0. 8. 7.</_>
    <_>
      1.09999999e-01 2.19999999e-01 1.72000003e+00 4. 1.07600003e-01
      1.64800003e-01 2.91900009e-01 1.14100002e-01 0. 5. 4.</_>
    <_>
      2.30000004e-01 4.00000006e-01 2.67000008e+00 3. 0. 6.53000027e-02
      4.71000001e-02 2.90699989e-01 0. 10. 7.</_>
    <_>
      1.89999998e-01 1.19999997e-01 2.01999998e+00 2. 0. 0.
      2.23100007e-01 5.09000011e-02 0. 8. 6.</_>
    <_>
      1.89999998e-01 1.89999998e-01 2.07999992e+00 2. 0. 0.
      3.03900003e-01 1.28299996e-01 0. 10. 5.</_>
    <_>
      7.30000019e-01 2.80000001e-01 6.76999998e+00 1. 0. 0. 0.
      4.28999998e-02 0. 8. 4.</_>
    <_>
      2.00000003e-01 1.59999996e-01 2.18000007e+00 1. 0. 0. 0.
      1.82899997e-01 0. 7. 5.</_>
    <_>
      3.70000005e-01 5.00000000e-01 1.36000001e+00 0. 0. 0. 0. 0. 0. 1.
      0.</_>
    <_>
      1.29999995e-01 1.29999995e-01 2.42000008e+00 2. 0. 0.
      1.82000007e-02 1.20999999e-02 0. 8. 7.</_>
    <_>
      2.70000011e-01 5.89999974e-01 7.17000008e+00 1. 0. 0. 0.
      1.35499999e-01 0. 9. 7.</_>
    <_>
      4.09999996e-01 2.59999990e-01 2.72000003e+00 1. 0. 0. 0.
      1.71299994e-01 0. 4. 3.</_>
    <_>
      1.59999996e-01 1.50000006e-01 2.48000002e+00 2. 0. 0.
      2.24099994e-01 1.06700003e-01 0. 6. 5.</_>
    <_>
      1.89999998e-01 1.80000007e-01 1.94000006e+00 1. 0. 0. 0.
      1.77999996e-02 0. 5. 3.</_>
    <_>
      3.00000012e-01 4.39999998e-01 6.36999989e+00 2. 0. 0.
      4.47999984e-02 2.22599998e-01 0. 5. 4.</_></support_vectors>
  <decision_functions>
    <_>
      <sv_count>24</sv_count>
      <rho>-1.7981147903901445e-01</rho>
      <alpha>
        7.9623108693487998e-01 2.7849606899490071e+00
        7.8151956471555234e-02 1.2648621669039246e+00
        1.7200135482991281e+00 5. 5. 2.3419631800938863e+00
        7.5821373746646870e-01 2.9997537851732812e+00
        7.8316308087994801e-01 4.9780620915220100e+00 5.
        2.9297971158020970e+00 -1.9300519031694883e+00 -5.
        -3.8701815861349136e+00 -5. -5. -1.0218258160907974e+00 -5.
        -3.2951660018835383e+00 -1.5619506915882775e+00
        -4.7559964406291710e+00</alpha>
      <index>
        11 21 22 23 10 12 13 14 15 16 17 18 19 20 1 2 3 4 5 7 8 9 6 0</index></_></decision_functions></opencv_ml_svm>
</opencv_storage>
