<?xml version="1.0"?>
<opencv_storage>
<opencv_ml_svm>
  <format>3</format>
  <svmType>C_SVC</svmType>
  <kernel>
    <type>LINEAR</type></kernel>
  <C>3.</C>
  <term_criteria><iterations>100</iterations></term_criteria>
  <var_count>11</var_count>
  <class_count>2</class_count>
  <class_labels type_id="opencv-matrix">
    <rows>2</rows>
    <cols>1</cols>
    <dt>i</dt>
    <data>
      0 1</data></class_labels>
  <sv_total>1</sv_total>
  <support_vectors>
    <_>
      3.43679404e-03 2.87369301e-04 4.21513058e-03 1.30254147e-03
      -6.05050568e-03 -4.99496497e-02 7.46257324e-03 4.15810524e-03 0.
      -2.57768645e-03 -6.03689579e-03</_></support_vectors>
  <uncompressed_sv_total>12</uncompressed_sv_total>
  <uncompressed_support_vectors>
    <_>
      2.29917035e-01 2.53422588e-01 3.34594989e+00 1. 0. 0. 0. 68. 0.
      542. 481.</_>
    <_>
      2.87446827e-01 2.89204329e-01 2.17470837e+00 3. 92. 0. 110. 78. 0.
      700. 548.</_>
    <_>
      4.34897184e-01 2.47649625e-01 3.11754489e+00 2. 0. 34. 0. 235. 0.
      532. 443.</_>
    <_>
      2.67446458e-01 3.11340660e-01 4.14819145e+00 1. 0. 0. 0. 9. 0.
      560. 539.</_>
    <_>
      1.71206474e-01 1.82504505e-01 3.17767096e+00 1. 0. 15. 0. 0. 0.
      503. 423.</_>
    <_>
      1.61302581e-01 1.36625960e-01 1.69360483e+00 3. 0. 18. 45. 5. 0.
      360. 219.</_>
    <_>
      1.85182333e-01 2.07362682e-01 2.06000853e+00 2. 0. 0. 221. 92. 0.
      738. 393.</_>
    <_>
      8.78195763e-01 3.40929419e-01 4.76576519e+00 1. 0. 0. 0. 45. 0.
      499. 486.</_>
    <_>
      9.98103842e-02 1.22666940e-01 1.38593280e+00 3. 87. 0. 70. 218. 0.
      539. 395.</_>
    <_>
      1.30250975e-01 1.27044618e-01 2.27495599e+00 2. 0. 0. 8. 5. 0.
      541. 482.</_>
    <_>
      2.38700107e-01 1.66102633e-01 1.66586113e+00 3. 0. 19. 24. 87. 0.
      265. 237.</_>
    <_>
      1.66139379e-01 1.75020456e-01 2.08030891e+00 1. 0. 0. 0. 28. 0.
      677. 432.</_></uncompressed_support_vectors>
  <decision_functions>
    <_>
      <sv_count>1</sv_count>
      <rho>-3.9429032877924968e+00</rho>
      <alpha>
        1.</alpha>
      <index>
        0</index></_></decision_functions></opencv_ml_svm>
</opencv_storage>
